{
    "model_name": "Car_v1_NoNumpy",
    "layers": [
        {
            "type": "dense",
            "in_size": 4,
            "out_size": 8,
            "rows": 8,
            "cols": 4,
            "weights": [
                -0.9170236442783538,
                -3.0801605932763843,
                0.18506085601335856,
                0.4261061520685834,
                0.7401177935431545,
                -0.936540903223459,
                -0.3661865149190883,
                1.4425188631338892,
                -1.4210418673705227,
                0.47824333086626797,
                -1.0845011052826579,
                1.0571526004013245,
                0.38387342705677396,
                0.15471714353376975,
                0.6292148532782988,
                0.3896679739451534,
                -0.056192965060026606,
                -0.6041284542374877,
                -0.030166208724808588,
                -0.7425040533608925,
                1.9114154091368152,
                0.3424904783892613,
                1.0729217904021167,
                -0.5292667428441628,
                0.2870656746473325,
                -0.45895011328765667,
                0.27088450460914154,
                0.8114510125258625,
                0.40661786026089686,
                -0.36193158173541146,
                2.097823823744576,
                1.738632565599653
            ],
            "biases": [
                -0.6683382674331775,
                -0.7753025755623189,
                0.5045564542904845,
                -0.8374437392239906,
                1.0193943857036611,
                0.7000301498605846,
                0.4649803423316806,
                -0.7433286673921978
            ]
        },
        {
            "type": "dense",
            "in_size": 8,
            "out_size": 8,
            "rows": 8,
            "cols": 8,
            "weights": [
                0.16238058882295683,
                -0.28378075358301214,
                0.27527077742404854,
                -0.5015364636310274,
                0.12994588074826302,
                0.40808816433449446,
                -0.745474080879407,
                0.7009693296376849,
                0.29997085913398525,
                1.5042040138873471,
                0.8287384946859966,
                0.6812541906158961,
                -1.2658409379868938,
                -1.5469192636603009,
                -1.155191244460559,
                1.5562096698882588,
                0.5192597770462082,
                0.16786235795986604,
                0.7328825672617736,
                -0.9748378441823594,
                -0.47315940942917173,
                -0.620973023094945,
                0.13676762641622428,
                0.9403486109448957,
                0.07568822322244348,
                -0.4364211645680406,
                1.1500551402616306,
                1.4705623197629176,
                0.2205097329203208,
                -0.750297618853322,
                0.2615470343295211,
                0.363562382199667,
                0.7454238125653603,
                -0.17430608051546068,
                0.3094981425695478,
                -0.8468572495256301,
                0.22094787616431796,
                0.39806636054824407,
                0.2790976739560449,
                0.8401494983317732,
                0.4921169324737516,
                -0.5593304576215117,
                -1.4491191011360438,
                -1.4878745589983573,
                0.5847219108325817,
                -1.4059680057948096,
                0.7636934728735141,
                -1.1308102462350258,
                1.3362788024071457,
                0.003511399299815225,
                0.5087035494539205,
                0.050360688927973685,
                -0.6211017573563037,
                0.8970580583072826,
                -0.2793181198372958,
                0.820052039642121,
                -0.8346743973418188,
                -0.32354828334020946,
                -0.2942375377001399,
                0.30001488522799463,
                -0.7874987275050684,
                -0.6669495188745016,
                0.6051533063934043,
                -1.0097433550992145
            ],
            "biases": [
                -0.5970675203937826,
                0.9084073994802727,
                -1.1132091976240381,
                0.23516957225244445,
                1.5104991793005764,
                -1.199480786715785,
                -0.38740096725139744,
                -0.28183657554005737
            ]
        },
        {
            "type": "dense",
            "in_size": 8,
            "out_size": 2,
            "rows": 2,
            "cols": 8,
            "weights": [
                -0.11571854830848358,
                -0.41959660742382726,
                -0.8622474892477974,
                -2.104692945318483,
                1.9995422378592707,
                2.237564495674175,
                -1.2201841957853201,
                -1.0631714450903575,
                -0.4718610954056961,
                -0.25345627820918554,
                0.08343909249923497,
                1.0923300129677271,
                0.33985126744704097,
                -1.3348513219358158,
                -0.7546825574178978,
                -0.32584196522505415
            ],
            "biases": [
                -1.060483928334454,
                1.280165541367719
            ]
        }
    ]
}